{
  "schemaVersion": "rl-policy-v1",
  "metadata": {
    "runId": "ppo-ablation-a",
    "createdAt": "2026-03-07T08:15:49.219654+00:00",
    "modelType": "mlp-44x32x32x5",
    "inputSize": 44,
    "hiddenSize": 32,
    "hiddenSizes": [
      32,
      32
    ],
    "outputSize": 5,
    "actionOrder": [
      "up",
      "down",
      "left",
      "right",
      "stay"
    ],
    "observationVersion": 2,
    "trainDatasetId": "val-v1-large",
    "supplementalDatasetId": "respawn-chase",
    "supplementalWeight": 8.0,
    "validationSeedSetId": "val-v1",
    "gateSeedSetId": "dev-v1",
    "trainerStack": "python-pytorch",
    "sourceCheckpointDir": "/Users/berkozer/Documents/snake-pvp/worktrees/simulator-extraction/ai/artifacts/checkpoints/run-val-v1-large-h32x32-respawn8",
    "checkpointOrigin": "rl-ppo",
    "exportVersion": "rl-policy-v1",
    "lastRlUpdate": 60
  },
  "inputMean": [
    16.52650260925293,
    10.65706729888916,
    1.4342039823532104,
    1.4466872215270996,
    13.57624340057373,
    13.888175964355469,
    0.9595210552215576,
    42.76201629638672,
    16.668941497802734,
    10.752603530883789,
    1.438584804534912,
    1.444667935371399,
    13.599206924438477,
    13.88563060760498,
    0.9658544659614563,
    36.139854431152344,
    -0.008511348627507687,
    0.531099796295166,
    44325.1171875,
    0.7365153431892395,
    0.020402202382683754,
    0.26265019178390503,
    0.025008345022797585,
    0.001468624803237617,
    0.7318174242973328,
    0.013526368886232376,
    0.27283042669296265,
    0.05117657035589218,
    0.002386515261605382,
    0.7659462690353394,
    0.007117823697626591,
    0.2547229528427124,
    0.027545060962438583,
    0.0021862483117729425,
    0.7657209634780884,
    0.003738317871466279,
    0.2613067328929901,
    0.027570093050599098,
    0.0018274366157129407,
    1.0,
    0.0068758344277739525,
    0.006542055867612362,
    0.01584612764418125,
    0.0006592122954316437
  ],
  "inputStd": [
    8.595916748046875,
    6.243521213531494,
    1.1180574893951416,
    1.119222640991211,
    7.855732440948486,
    8.804733276367188,
    0.19702915847301483,
    238.2698974609375,
    8.52491569519043,
    6.1889967918396,
    1.1194863319396973,
    1.1199076175689697,
    7.821330547332764,
    8.80912971496582,
    0.18166734278202057,
    219.7471923828125,
    12.261632919311523,
    5.749756813049316,
    25982.775390625,
    0.4406930208206177,
    0.14135903120040894,
    0.43995150923728943,
    0.15620818734169006,
    0.03827960044145584,
    0.44310951232910156,
    0.11541717499494553,
    0.44527125358581543,
    0.22025959193706512,
    0.04876665398478508,
    0.4233208894729614,
    0.0841054692864418,
    0.4354551136493683,
    0.1635976880788803,
    0.046685803681612015,
    0.42334631085395813,
    0.060971226543188095,
    0.4393784701824188,
    0.16366781294345856,
    0.04267987236380577,
    1.0,
    0.08268837630748749,
    0.08064031600952148,
    0.12485328316688538,
    0.0256589837372303
  ],
  "layers": [
    {
      "weight": [
        [
          -0.036720436066389084,
          0.11188153177499771,
          0.03413041681051254,
          0.16278418898582458,
          -0.05815533548593521,
          -0.05770822614431381,
          -0.0842418521642685,
          0.04832945019006729,
          0.04215529188513756,
          -0.08350899815559387,
          0.014736464247107506,
          0.002360590500757098,
          0.03140142932534218,
          -0.14243020117282867,
          -0.03172391653060913,
          -0.02262779511511326,
          -1.0015456676483154,
          0.17176800966262817,
          -0.13261424005031586,
          -0.22089731693267822,
          0.018382033333182335,
          -0.3479568660259247,
          -0.17445454001426697,
          -0.2912505269050598,
          0.01760738343000412,
          0.05698074400424957,
          -0.6041173934936523,
          0.09476988762617111,
          0.03157518059015274,
          0.340893030166626,
          0.011854075826704502,
          0.11595591902732849,
          0.24019178748130798,
          0.00822377298027277,
          0.018151894211769104,
          -0.01081402599811554,
          0.22162161767482758,
          0.4221847951412201,
          0.06192043051123619,
          -0.06400537490844727,
          0.2672918736934662,
          0.18040333688259125,
          0.3189471364021301,
          0.23182012140750885
        ],
        [
          -0.017064064741134644,
          0.058329883962869644,
          0.39945071935653687,
          -0.12384528666734695,
          0.01796233281493187,
          -0.043817419558763504,
          -0.17008346319198608,
          0.24849861860275269,
          0.024136120453476906,
          -0.05028460547327995,
          -0.1327056586742401,
          0.11775868386030197,
          0.014829003252089024,
          -0.09829973429441452,
          0.2303234338760376,
          0.0007090184953995049,
          0.008649496361613274,
          -1.526748538017273,
          -0.14334474503993988,
          -0.058218155056238174,
          0.3392482399940491,
          0.9018723964691162,
          0.009966574609279633,
          0.01232205331325531,
          0.15263774991035461,
          0.23931998014450073,
          0.34607791900634766,
          0.2442445456981659,
          0.08284033089876175,
          -0.34381213784217834,
          -0.5360231399536133,
          -0.0812135860323906,
          0.33036109805107117,
          -0.01115133985877037,
          -0.40415695309638977,
          -0.17292378842830658,
          -0.4170718491077423,
          0.05871272459626198,
          -0.1753571629524231,
          0.06861529499292374,
          0.20031262934207916,
          0.07139437645673752,
          -0.12141551077365875,
          0.14120855927467346
        ],
        [
          -0.03796260431408882,
          0.09038989245891571,
          -0.0581362247467041,
          0.08051074296236038,
          -0.020786713808774948,
          0.026166701689362526,
          -0.18953163921833038,
          0.12896187603473663,
          0.009306722320616245,
          -0.11467600613832474,
          -0.030699264258146286,
          0.04375671595335007,
          0.0009278010111302137,
          -0.002411728259176016,
          0.08840041607618332,
          0.017346443608403206,
          -0.02663535438477993,
          -1.1276699304580688,
          0.020735839381814003,
          0.4026022255420685,
          -0.005570118315517902,
          -0.7979608774185181,
          -0.2905738353729248,
          -0.21925105154514313,
          -0.24157564342021942,
          0.09649161249399185,
          -0.11990664154291153,
          0.2815247178077698,
          0.216505765914917,
          -0.1687978208065033,
          -0.04084976017475128,
          -0.1811494678258896,
          -0.07972853630781174,
          0.016402389854192734,
          -0.19453710317611694,
          0.16476058959960938,
          -0.19040748476982117,
          -0.0901404470205307,
          0.08234842866659164,
          -0.12980060279369354,
          -0.18019859492778778,
          0.05493425950407982,
          0.05991451442241669,
          -0.003737005405128002
        ],
        [
          0.04208022728562355,
          -0.23628973960876465,
          0.26159778237342834,
          0.05252356454730034,
          0.03809260204434395,
          0.09688091278076172,
          -0.22326846420764923,
          0.2500336468219757,
          -0.16928423941135406,
          -0.025982409715652466,
          -0.0014505437575280666,
          -0.07611418515443802,
          -0.02687455527484417,
          0.06701844930648804,
          0.0749812051653862,
          -0.23330429196357727,
          0.31982171535491943,
          0.2996368408203125,
          0.036573078483343124,
          0.4566378593444824,
          0.07869447767734528,
          -0.33846810460090637,
          -0.11852756887674332,
          -0.2613160312175751,
          0.21041493117809296,
          0.3377131521701813,
          0.24321408569812775,
          0.37241044640541077,
          -0.0690973550081253,
          -0.34472060203552246,
          0.22626306116580963,
          0.21194633841514587,
          -0.2582724392414093,
          -0.2819577157497406,
          0.06534789502620697,
          -0.3191552758216858,
          -0.10207673162221909,
          -0.3227498531341553,
          -0.06637394428253174,
          0.013344845734536648,
          -0.5919000506401062,
          -0.2922566831111908,
          -0.36008599400520325,
          -0.3213428258895874
        ],
        [
          0.13756993412971497,
          -0.20136813819408417,
          0.22380641102790833,
          -0.04677512124180794,
          0.08116292208433151,
          0.1433160901069641,
          -0.018115831539034843,
          0.029975857585668564,
          -0.07339679449796677,
          0.23670537769794464,
          0.15384064614772797,
          -0.12739945948123932,
          0.016926581040024757,
          0.2441658228635788,
          0.007507548201829195,
          0.10455004870891571,
          0.28863805532455444,
          -0.09046556055545807,
          0.407660573720932,
          0.03290790319442749,
          -0.056931763887405396,
          0.14698603749275208,
          0.41457420587539673,
          0.04226880148053169,
          0.08679530769586563,
          -0.38213664293289185,
          0.4291181266307831,
          0.44323450326919556,
          0.2312752902507782,
          -0.19632887840270996,
          -0.17125843465328217,
          0.43358752131462097,
          0.10036703199148178,
          -0.13975101709365845,
          0.37786927819252014,
          -0.4087967276573181,
          -0.5761110186576843,
          -0.31681886315345764,
          -0.3496762812137604,
          0.10401743650436401,
          -0.24327512085437775,
          0.05768163874745369,
          -0.13511298596858978,
          0.0486672967672348
        ],
        [
          -0.2331688553094864,
          -0.07407714426517487,
          0.07324285805225372,
          -0.026997556909918785,
          0.020576627925038338,
          -0.08847466856241226,
          -0.07444028556346893,
          0.04020333290100098,
          0.22054237127304077,
          0.14613427221775055,
          -0.043025486171245575,
          0.024343226104974747,
          0.021562153473496437,
          -0.10991556197404861,
          0.3386511206626892,
          0.07146719843149185,
          -0.40721455216407776,
          0.03923613950610161,
          -0.3365879952907562,
          0.3330006003379822,
          0.06803184002637863,
          -0.2186504751443863,
          -0.024481192231178284,
          -0.2450934797525406,
          -0.20362643897533417,
          0.28796300292015076,
          0.600786030292511,
          0.5036113858222961,
          -0.07447993755340576,
          0.022962354123592377,
          -0.1415446251630783,
          -0.31289827823638916,
          -0.13018839061260223,
          -0.15458527207374573,
          -0.3738951086997986,
          -0.15427955985069275,
          0.34819158911705017,
          0.17567960917949677,
          -0.0895719900727272,
          0.016178157180547714,
          0.3003162741661072,
          0.013429063372313976,
          -0.17923897504806519,
          -0.08892093598842621
        ],
        [
          0.06137806177139282,
          -0.07117108255624771,
          -0.07231996208429337,
          -0.06305472552776337,
          0.008619418367743492,
          -0.0021150708198547363,
          0.08354709297418594,
          -0.3695310950279236,
          -0.005080445669591427,
          0.040014684200286865,
          -0.028702223673462868,
          0.05697992816567421,
          -0.017296643927693367,
          0.008807209320366383,
          0.3243803083896637,
          -0.06818965822458267,
          -0.056021470576524734,
          1.487492561340332,
          0.029872315004467964,
          0.09510501474142075,
          -0.6266025900840759,
          -0.07627654820680618,
          -0.031052183359861374,
          0.0072155240923166275,
          -0.11696600914001465,
          -0.1660897135734558,
          -0.24424006044864655,
          0.024545300751924515,
          -0.28724992275238037,
          0.03222610056400299,
          0.003875606693327427,
          0.03993622586131096,
          0.00021966519125271589,
          -0.17377574741840363,
          -0.0446130596101284,
          -0.015291544608771801,
          -0.10592155903577805,
          -0.0069472771137952805,
          -0.03004109114408493,
          0.14252939820289612,
          0.002638609614223242,
          -0.4327824115753174,
          -0.025970125570893288,
          -0.2402866780757904
        ],
        [
          0.08318670094013214,
          0.029971057549118996,
          -0.1282881498336792,
          -0.023411693051457405,
          0.05251651629805565,
          0.04985184967517853,
          -0.10461009293794632,
          0.25329145789146423,
          -0.0038418411277234554,
          -0.04951051250100136,
          -0.12241057306528091,
          -0.03781348839402199,
          -0.03961934894323349,
          -0.031164532527327538,
          -0.017644129693508148,
          0.06029117479920387,
          -0.667921245098114,
          0.8635303974151611,
          -0.003341654082760215,
          -0.0870075598359108,
          -0.021739240735769272,
          -0.0002068003232125193,
          0.651881992816925,
          -0.20445989072322845,
          0.06675460189580917,
          0.03081849403679371,
          -0.10670948773622513,
          -0.08833000808954239,
          -0.005321988835930824,
          0.47312426567077637,
          -0.017790164798498154,
          -0.269471675157547,
          -0.1548955738544464,
          -0.18871939182281494,
          -0.2982207238674164,
          -0.012618539854884148,
          0.075947105884552,
          0.2609667479991913,
          -0.13775604963302612,
          -0.07209683954715729,
          -0.2224760204553604,
          -0.24163225293159485,
          -0.059383880347013474,
          -0.00820869393646717
        ],
        [
          -0.14109042286872864,
          -0.01599610596895218,
          -0.5451914072036743,
          -0.7318986654281616,
          0.08466394990682602,
          0.07593440264463425,
          0.4255097508430481,
          -0.43341630697250366,
          -0.012533769011497498,
          -0.07584017515182495,
          -0.42510539293289185,
          0.013821536675095558,
          -0.046510323882102966,
          -0.008473695255815983,
          -0.14683066308498383,
          0.2321556955575943,
          -0.27738818526268005,
          -0.13220734894275665,
          -0.15381577610969543,
          0.17815285921096802,
          0.03782159462571144,
          -0.11118774861097336,
          -0.10783839970827103,
          0.008057971484959126,
          -0.4795466363430023,
          0.42307308316230774,
          0.7095629572868347,
          0.1864393651485443,
          0.24661767482757568,
          0.4836273789405823,
          -0.5093357563018799,
          -0.8149797320365906,
          -0.30312013626098633,
          -0.07416032999753952,
          0.4810892641544342,
          -0.024828152731060982,
          -0.6419450640678406,
          -0.2100261151790619,
          -0.13444700837135315,
          -0.05247248709201813,
          0.20635254681110382,
          0.00544723030179739,
          0.28785496950149536,
          -0.348829984664917
        ],
        [
          0.17628604173660278,
          -0.020731013268232346,
          0.27183231711387634,
          0.013475810177624226,
          0.05506797507405281,
          -0.0645153671503067,
          -0.2900218367576599,
          0.27170881628990173,
          -0.09411830455064774,
          -0.1401360183954239,
          0.06159261614084244,
          -0.019633527845144272,
          0.011556688696146011,
          -0.0009103508200496435,
          -0.3616858422756195,
          0.30744001269340515,
          0.038309987634420395,
          0.4407777190208435,
          -0.15511351823806763,
          -0.10705964267253876,
          0.5727628469467163,
          0.22471719980239868,
          -0.18935464322566986,
          -0.2515985369682312,
          0.33365532755851746,
          0.13045497238636017,
          -0.390798956155777,
          -0.0835573822259903,
          0.3800393342971802,
          -0.08011000603437424,
          0.054835740476846695,
          -0.4482830762863159,
          -0.15114499628543854,
          -0.0029786305967718363,
          -0.38647958636283875,
          0.06944014132022858,
          -0.5498179197311401,
          -0.36837539076805115,
          0.10151616483926773,
          0.009992644190788269,
          0.2771771252155304,
          0.356330931186676,
          0.19804677367210388,
          0.048494238406419754
        ],
        [
          -0.143934428691864,
          -0.16365990042686462,
          -0.18443278968334198,
          0.12930168211460114,
          -0.010662711225450039,
          0.07794836908578873,
          -0.21674180030822754,
          0.14727315306663513,
          0.24414245784282684,
          0.19682830572128296,
          -0.11779075115919113,
          -0.11594857275485992,
          0.053287193179130554,
          -0.05148976668715477,
          0.1443197876214981,
          -0.03159176558256149,
          0.41691064834594727,
          -0.275691956281662,
          -0.01241327915340662,
          0.4517941474914551,
          -0.2764441967010498,
          -0.7462285161018372,
          -0.4969279170036316,
          -0.046050433069467545,
          -0.3158014416694641,
          0.03912009671330452,
          0.23613141477108002,
          -0.29401805996894836,
          0.06784836202859879,
          0.013090373948216438,
          0.16167883574962616,
          0.16935624182224274,
          0.5432893633842468,
          0.18241089582443237,
          0.30202287435531616,
          -0.05781397968530655,
          -0.03253472223877907,
          0.21059808135032654,
          -0.0201859287917614,
          -0.11278410255908966,
          0.1604875922203064,
          -0.03677792102098465,
          0.09591975808143616,
          0.057099372148513794
        ],
        [
          -0.07069618254899979,
          0.04136338457465172,
          0.2604004740715027,
          -0.1490906924009323,
          0.026840833947062492,
          -0.08561434596776962,
          -0.23990915715694427,
          -0.00017599546117708087,
          -0.10862836986780167,
          -0.06136481836438179,
          -0.09227348119020462,
          -0.34272241592407227,
          -0.13263057172298431,
          0.07466280460357666,
          -0.25841689109802246,
          0.06639070063829422,
          -0.24025297164916992,
          0.1672353446483612,
          -0.053290460258722305,
          -0.334539532661438,
          -0.4730738699436188,
          0.32103922963142395,
          0.42502737045288086,
          0.31683382391929626,
          0.47756320238113403,
          -0.47722095251083374,
          -0.2836165130138397,
          -0.015703542158007622,
          -0.5106819272041321,
          0.203500896692276,
          -0.5124960541725159,
          -0.459276407957077,
          -0.6794737577438354,
          -0.4181325137615204,
          -0.10095258802175522,
          -0.506061851978302,
          -0.09508541971445084,
          0.14286677539348602,
          0.24717877805233002,
          -0.12389720976352692,
          -0.4925313889980316,
          -0.39565524458885193,
          0.14614035189151764,
          -0.1739443987607956
        ],
        [
          -0.19822868704795837,
          0.14132429659366608,
          -0.0747486874461174,
          -0.09311765432357788,
          0.0005578779382631183,
          -0.057559411972761154,
          -0.43560001254081726,
          0.20346522331237793,
          0.21668998897075653,
          0.011966884136199951,
          0.059475693851709366,
          0.18428941071033478,
          0.07998915761709213,
          -0.20961745083332062,
          0.029422279447317123,
          -0.12351538985967636,
          -0.2768667936325073,
          -0.06184675544500351,
          -0.13658446073532104,
          -0.29703935980796814,
          0.12149469554424286,
          0.6456668972969055,
          0.3485727310180664,
          -0.2791615128517151,
          0.44385838508605957,
          0.11666738986968994,
          -0.2521129250526428,
          0.05814535543322563,
          -0.01846780814230442,
          0.4489567279815674,
          0.01432827953249216,
          -0.3787488639354706,
          -0.11692272871732712,
          -0.09974293410778046,
          -0.2604653537273407,
          -0.028587110340595245,
          0.2989834249019623,
          0.6017667055130005,
          0.2646854519844055,
          -0.040064889937639236,
          0.1709301620721817,
          -0.19233299791812897,
          -0.44321325421333313,
          -0.1533021628856659
        ],
        [
          -0.08666738122701645,
          -0.0547766387462616,
          -0.2237803339958191,
          0.10048944503068924,
          -0.022836677730083466,
          -0.08856634050607681,
          -0.10346753150224686,
          0.06013493239879608,
          -0.07666294276714325,
          0.13753797113895416,
          -0.05097021907567978,
          0.08881918340921402,
          -0.04096890985965729,
          -0.025480324402451515,
          -0.0939866229891777,
          0.29108598828315735,
          -0.1313476264476776,
          -0.4624108374118805,
          -0.16044151782989502,
          0.5387406349182129,
          -0.21698462963104248,
          -1.100109338760376,
          -0.2716655135154724,
          -0.3146572411060333,
          -0.3287521004676819,
          0.018189826980233192,
          0.05786113813519478,
          -0.2291370928287506,
          0.10194386541843414,
          0.11616823822259903,
          -0.12801547348499298,
          0.16529731452465057,
          0.028157580643892288,
          -0.13420337438583374,
          0.11210864782333374,
          -0.12437521666288376,
          0.11297506093978882,
          0.04095122218132019,
          -0.19506892561912537,
          0.1093207448720932,
          -0.25138360261917114,
          0.2919105887413025,
          0.132221519947052,
          -0.38322171568870544
        ],
        [
          0.018566817045211792,
          -0.08243925124406815,
          0.22532467544078827,
          -0.10027529299259186,
          -0.004651523195207119,
          -0.04423780366778374,
          -0.03518248349428177,
          0.004357832483947277,
          0.003462021704763174,
          0.05506213754415512,
          0.05450037866830826,
          -0.04432002454996109,
          0.003383067436516285,
          -0.05302576348185539,
          0.1733599305152893,
          0.09434377402067184,
          0.03826518729329109,
          1.347196340560913,
          -0.09601438045501709,
          -0.062403708696365356,
          -0.17006422579288483,
          0.12198019027709961,
          0.13374446332454681,
          -0.05196743831038475,
          0.32448306679725647,
          0.3438308835029602,
          0.5586212277412415,
          0.5804194808006287,
          0.3460512161254883,
          -0.08848783373832703,
          -0.3522759974002838,
          -0.02512945421040058,
          -0.007559890393167734,
          -0.006697200704365969,
          -0.20261640846729279,
          -0.205179825425148,
          -0.08308637887239456,
          -0.15982948243618011,
          -0.12595421075820923,
          -0.033800430595874786,
          0.3135901093482971,
          -0.019448578357696533,
          0.12720036506652832,
          0.06015126779675484
        ],
        [
          0.008595208637416363,
          -0.029927756637334824,
          -0.13217201828956604,
          -0.14382116496562958,
          -0.08344168215990067,
          -0.033225394785404205,
          -0.1476249247789383,
          0.055919285863637924,
          -0.3415403664112091,
          0.18135112524032593,
          0.0647885873913765,
          -0.003246123204007745,
          0.12360552698373795,
          0.14625601470470428,
          0.09792885929346085,
          -0.24611704051494598,
          -0.22173425555229187,
          0.1699463129043579,
          0.10437432676553726,
          0.23872125148773193,
          -0.4296359419822693,
          -0.07232975214719772,
          -0.41738224029541016,
          -0.10652830451726913,
          -0.17040349543094635,
          0.10409955680370331,
          0.15229883790016174,
          -0.03997276723384857,
          -0.07614237815141678,
          0.24020978808403015,
          -0.14652520418167114,
          -0.37783440947532654,
          -0.06225603446364403,
          0.15333783626556396,
          0.1042381003499031,
          0.17058536410331726,
          0.5286852717399597,
          0.383624792098999,
          -0.1759544163942337,
          0.049025919288396835,
          0.1433866173028946,
          -0.0694342702627182,
          0.1428571492433548,
          -0.20387397706508636
        ],
        [
          -0.17229712009429932,
          0.11177150160074234,
          -0.27041345834732056,
          -0.08902501314878464,
          -0.07219564914703369,
          -0.021113252267241478,
          -0.13065771758556366,
          0.21260559558868408,
          0.13471223413944244,
          -0.3303506076335907,
          0.2533578872680664,
          -0.20809561014175415,
          -0.08263605087995529,
          -0.12266944348812103,
          0.09262306988239288,
          -0.2457488626241684,
          0.3918285369873047,
          0.11992968618869781,
          -0.23909373581409454,
          -0.2913319766521454,
          -0.09421201795339584,
          0.11729105561971664,
          0.009666495025157928,
          0.1202276423573494,
          -0.013736351393163204,
          -0.19779670238494873,
          0.0033014900982379913,
          -0.17450276017189026,
          -0.002363820094615221,
          0.2760680913925171,
          0.45919325947761536,
          -0.06580861657857895,
          0.28835731744766235,
          0.2908526062965393,
          0.32337015867233276,
          -0.1664656400680542,
          -0.44578126072883606,
          -0.26648595929145813,
          -0.2489137202501297,
          0.020617526024580002,
          -0.3500595688819885,
          -0.09687359631061554,
          0.19746427237987518,
          0.0008381613879464567
        ],
        [
          0.07852672040462494,
          0.11493375152349472,
          -0.14118055999279022,
          -0.049682989716529846,
          0.017575424164533615,
          0.015407518483698368,
          0.3480016589164734,
          -0.431524395942688,
          -0.035433344542980194,
          -0.16314813494682312,
          -0.025356007739901543,
          -0.037342991679906845,
          -0.03517654538154602,
          -0.007087706122547388,
          0.031384438276290894,
          -0.015564056113362312,
          0.37878546118736267,
          -2.0433404445648193,
          -0.03401834890246391,
          -0.08118723332881927,
          0.1326746940612793,
          -0.08865279704332352,
          0.13515590131282806,
          -0.27051258087158203,
          -0.0745469257235527,
          -0.028248362243175507,
          -0.23812995851039886,
          0.005075183697044849,
          -0.3981533348560333,
          -0.14143402874469757,
          -0.6768980622291565,
          -0.16178543865680695,
          -0.1262596845626831,
          -0.06908395141363144,
          -0.034522224217653275,
          -0.39866623282432556,
          0.09267932921648026,
          0.009858591482043266,
          -0.28815174102783203,
          -0.06894093751907349,
          0.5709748864173889,
          0.20348869264125824,
          -0.5275464057922363,
          -0.4168091416358948
        ],
        [
          -0.12955668568611145,
          -0.2144126147031784,
          -0.190342977643013,
          -0.09731756150722504,
          0.012483599595725536,
          0.0838174894452095,
          -0.15462280809879303,
          0.23750726878643036,
          0.09405165165662766,
          0.016720997169613838,
          -0.028352487832307816,
          -0.05894918739795685,
          -0.038740456104278564,
          -0.06306806951761246,
          -0.14034560322761536,
          0.05142269656062126,
          -0.5644588470458984,
          -0.4897312521934509,
          0.037499044090509415,
          0.35503342747688293,
          -0.010943688452243805,
          0.17012213170528412,
          -0.14444813132286072,
          0.18092554807662964,
          -0.15153762698173523,
          0.2233831137418747,
          0.37996038794517517,
          0.433660626411438,
          0.18987375497817993,
          0.47394636273384094,
          -0.3723478615283966,
          -0.38122695684432983,
          0.10791929066181183,
          -0.06271551549434662,
          -0.2628006041049957,
          0.04995575547218323,
          0.25270476937294006,
          0.13076616823673248,
          -0.18942221999168396,
          -0.07923954725265503,
          -0.31145352125167847,
          -0.1317177414894104,
          0.15226005017757416,
          0.18714554607868195
        ],
        [
          -0.10564853250980377,
          0.245438352227211,
          -0.2580273747444153,
          -0.033636752516031265,
          0.02943231165409088,
          -0.1377660483121872,
          -0.0056250798515975475,
          0.04525286331772804,
          -0.005404787138104439,
          -0.10971686989068985,
          -0.06985127925872803,
          0.01284853182733059,
          -0.00039723998634144664,
          -0.2433391660451889,
          -0.4178205132484436,
          0.22640499472618103,
          0.8731327056884766,
          0.11464149504899979,
          -0.3743418753147125,
          -0.07848718762397766,
          -0.22802665829658508,
          -0.18283091485500336,
          -0.3173694312572479,
          -0.2833820581436157,
          -0.023555288091301918,
          -0.11803518980741501,
          0.029346421360969543,
          -0.005406424403190613,
          -0.3908580243587494,
          0.1850285679101944,
          -0.16958282887935638,
          -0.13539695739746094,
          0.3482188284397125,
          -0.27962273359298706,
          0.07417532056570053,
          -0.16533203423023224,
          0.07137591391801834,
          0.068062424659729,
          0.018105359748005867,
          -0.049713704735040665,
          -0.16398072242736816,
          -0.2642468214035034,
          -0.3551309406757355,
          -0.28723853826522827
        ],
        [
          -0.030776355415582657,
          0.26980096101760864,
          -0.45143046975135803,
          -0.5322867631912231,
          -0.08205652981996536,
          -0.18139736354351044,
          0.5390809774398804,
          -0.3730100095272064,
          0.1960611194372177,
          0.03872400149703026,
          -0.04693292826414108,
          0.3958039879798889,
          0.001475577475503087,
          -0.23654818534851074,
          0.2069299817085266,
          -0.009034272283315659,
          0.18528449535369873,
          0.31997016072273254,
          -0.28833600878715515,
          -0.22271397709846497,
          -0.29525017738342285,
          -0.026048367843031883,
          -0.011964821256697178,
          -0.3092164695262909,
          -0.019679730758070946,
          0.32280004024505615,
          0.3832780122756958,
          -0.4210551381111145,
          -0.14154654741287231,
          0.519725501537323,
          -0.1191021278500557,
          -0.5981950163841248,
          -0.06214169040322304,
          -0.4150901734828949,
          0.34056711196899414,
          0.15468931198120117,
          -0.19423547387123108,
          0.24240130186080933,
          -0.4838065803050995,
          0.024887708947062492,
          -0.3823639750480652,
          -0.12325625121593475,
          -0.355116069316864,
          -0.2074681967496872
        ],
        [
          0.01761276088654995,
          0.025677837431430817,
          0.07855525612831116,
          -0.11704492568969727,
          0.03279399499297142,
          -0.06541807949542999,
          0.30488526821136475,
          -0.4178405702114105,
          -0.03421861305832863,
          -0.021985840052366257,
          0.00619715079665184,
          -0.02246704138815403,
          -0.02059336192905903,
          -0.03179620951414108,
          -0.09239259362220764,
          0.18301740288734436,
          -1.222129225730896,
          -0.7262752056121826,
          -0.1265144646167755,
          -0.019966039806604385,
          -0.08746013790369034,
          -0.11069593578577042,
          -0.033093538135290146,
          -0.3227970004081726,
          -0.010960039682686329,
          -0.025467559695243835,
          -0.05669289454817772,
          -0.003006675746291876,
          -0.03234518691897392,
          0.11454760283231735,
          -0.33542826771736145,
          0.04304369539022446,
          0.00014144294254947454,
          -0.2907952666282654,
          0.05911528319120407,
          -0.07932664453983307,
          0.04288275167346001,
          0.06764797866344452,
          0.010708922520279884,
          0.14617127180099487,
          0.014540424570441246,
          -0.34683626890182495,
          -0.36984726786613464,
          0.11812219768762589
        ],
        [
          0.023777315393090248,
          -0.006677981000393629,
          0.40496036410331726,
          0.35367223620414734,
          0.0007603252888657153,
          0.008785436861217022,
          -0.23482607305049896,
          0.21379929780960083,
          -0.07140547037124634,
          0.15391846001148224,
          -0.2307547628879547,
          -0.06086206063628197,
          -0.05999593809247017,
          0.005368668586015701,
          0.1337893307209015,
          0.05184697359800339,
          0.1257784068584442,
          0.4558727741241455,
          0.02374785766005516,
          -0.2642125189304352,
          0.13277655839920044,
          0.1926315426826477,
          0.5085205435752869,
          0.10562309622764587,
          0.2997363209724426,
          0.13268011808395386,
          -0.6226812601089478,
          -0.27159762382507324,
          -0.2098933458328247,
          -0.3434255123138428,
          0.28248295187950134,
          -0.14812298119068146,
          0.11217197775840759,
          0.045703139156103134,
          0.11676014959812164,
          0.28797486424446106,
          -0.2680099308490753,
          -0.09949314594268799,
          -0.07751656323671341,
          0.14563022553920746,
          -0.0026875052135437727,
          -0.33556875586509705,
          -0.3287535607814789,
          0.09957696497440338
        ],
        [
          -0.0844917744398117,
          0.009436123073101044,
          0.01800251193344593,
          0.07002919167280197,
          0.022476566955447197,
          -0.17307859659194946,
          0.13714946806430817,
          -0.1602230817079544,
          0.0027510980144143105,
          0.09826838225126266,
          -0.006941888481378555,
          0.1069217100739479,
          -0.014500267803668976,
          -0.2637898921966553,
          0.15166960656642914,
          0.052028242498636246,
          0.022955182939767838,
          -0.5226188898086548,
          -0.06623773276805878,
          0.026613876223564148,
          0.01148082036525011,
          -0.22931024432182312,
          0.20630769431591034,
          0.09804752469062805,
          -0.046464476734399796,
          0.23163741827011108,
          -0.021066585555672646,
          0.5235216021537781,
          -0.14009025692939758,
          -0.04750576615333557,
          -0.38464632630348206,
          0.008468017913401127,
          -0.24172616004943848,
          -0.21249069273471832,
          0.03463350608944893,
          -0.3410295844078064,
          0.09031662344932556,
          -0.22410473227500916,
          -0.1690087914466858,
          -0.08287666738033295,
          0.1954200565814972,
          -0.16885489225387573,
          0.05155055224895477,
          -0.04339572787284851
        ],
        [
          0.009038797579705715,
          -0.0558307021856308,
          -0.16727802157402039,
          0.10120643675327301,
          0.023255454376339912,
          -0.05510460212826729,
          -0.2643367052078247,
          0.15587422251701355,
          0.007188576739281416,
          0.03565821796655655,
          0.03022119775414467,
          -0.012601417489349842,
          -0.02060256339609623,
          -0.014985280111432076,
          0.04565376043319702,
          0.010121935978531837,
          -0.011727351695299149,
          -1.302059292793274,
          -0.05901741981506348,
          0.2327727973461151,
          -0.007018689066171646,
          -0.9283255338668823,
          -0.6597830653190613,
          0.029651980847120285,
          -0.024928979575634003,
          0.010954123921692371,
          -0.14317987859249115,
          -0.037850506603717804,
          0.011168250814080238,
          0.18062947690486908,
          -0.007289818953722715,
          0.18833456933498383,
          0.42804813385009766,
          -0.01877257600426674,
          -0.028806515038013458,
          -0.01712348870933056,
          -0.04536573588848114,
          0.399200975894928,
          -0.08555538207292557,
          -0.06949304044246674,
          0.27488070726394653,
          -0.2048896700143814,
          -0.31145381927490234,
          0.07732347398996353
        ],
        [
          -0.00220358744263649,
          -0.0012458666460588574,
          -0.0022108089178800583,
          -0.19084317982196808,
          0.008791020140051842,
          -0.006261114031076431,
          -0.13518249988555908,
          -0.045968037098646164,
          0.0014107166789472103,
          0.0025779977440834045,
          0.09090279787778854,
          -0.09191565960645676,
          0.0009621946956031024,
          -0.006034802179783583,
          -0.025281155481934547,
          0.046321429312229156,
          -0.0028013477567583323,
          -1.363193154335022,
          -0.013777296990156174,
          0.026560066267848015,
          0.012167050503194332,
          -0.17887882888317108,
          -0.26534372568130493,
          -0.18235638737678528,
          -0.08868610113859177,
          0.10988031327724457,
          -0.156492680311203,
          -0.005402612034231424,
          -0.06094484403729439,
          -0.10166327655315399,
          -0.0008359245839528739,
          -0.15854178369045258,
          -0.4343995749950409,
          -0.05682555213570595,
          0.03217563033103943,
          0.15041424334049225,
          -0.09453890472650528,
          -0.43075984716415405,
          0.0241222120821476,
          0.03445417806506157,
          0.15846343338489532,
          -0.3132132887840271,
          -0.37465789914131165,
          -0.05734730511903763
        ],
        [
          0.023624548688530922,
          0.004782332107424736,
          -0.1036490947008133,
          0.1689613163471222,
          0.009100173600018024,
          -0.016377665102481842,
          0.030872398987412453,
          0.07582245022058487,
          0.0019258529646322131,
          -0.00364051666110754,
          -0.0013201665133237839,
          -0.000295807549264282,
          -0.004864690359681845,
          -0.05564413219690323,
          -0.19747225940227509,
          -0.00015814800281077623,
          0.0479525662958622,
          -1.1609978675842285,
          -0.08113596588373184,
          0.08665652573108673,
          0.010355072095990181,
          -0.4179885983467102,
          -0.2890956699848175,
          -0.34905973076820374,
          -0.07350978255271912,
          0.21510683000087738,
          -0.07716008275747299,
          -0.04001433402299881,
          0.028398629277944565,
          -0.02299569360911846,
          0.15063847601413727,
          -0.04781395196914673,
          -0.020440949127078056,
          0.2332931011915207,
          0.020089514553546906,
          -0.004078326281160116,
          0.033088576048612595,
          -0.02206874080002308,
          0.15815362334251404,
          -0.05961550399661064,
          -0.15553565323352814,
          -0.27487611770629883,
          0.02721664495766163,
          -0.008391745388507843
        ],
        [
          0.15287494659423828,
          0.03468785807490349,
          -0.0834488496184349,
          0.15074241161346436,
          -0.17227567732334137,
          -0.14076422154903412,
          0.015068353153765202,
          0.1160738617181778,
          -0.07882561534643173,
          0.03178919851779938,
          0.16251127421855927,
          0.08638405054807663,
          -0.12947018444538116,
          -0.04375926032662392,
          -0.17698635160923004,
          0.21473771333694458,
          0.07904817163944244,
          0.5450828671455383,
          -0.3034733533859253,
          -0.21383123099803925,
          0.21622870862483978,
          -0.05291098356246948,
          -0.2496410757303238,
          -0.37937989830970764,
          0.3854786157608032,
          -0.1592942178249359,
          -0.6273230910301208,
          -0.2362118363380432,
          0.0654505118727684,
          0.18590067327022552,
          -0.056370239704847336,
          -0.01927683688700199,
          -0.2588922381401062,
          0.3949959874153137,
          0.12427358329296112,
          -0.063863106071949,
          0.12330564111471176,
          0.05612654983997345,
          -0.1508254110813141,
          -0.09162554144859314,
          -0.10571243613958359,
          -0.25462114810943604,
          0.2155514359474182,
          -0.22417399287223816
        ],
        [
          0.024292580783367157,
          -0.04563673585653305,
          0.11034754663705826,
          0.3413906693458557,
          0.005443190690129995,
          0.025884781032800674,
          0.3112705647945404,
          -0.4586237072944641,
          -0.022695517167448997,
          0.05156713351607323,
          0.028089752420783043,
          -0.021028950810432434,
          0.02454484812915325,
          0.033831171691417694,
          -0.0753670260310173,
          -0.027332378551363945,
          -0.8228797316551208,
          0.09822308272123337,
          0.08190015703439713,
          0.07261227816343307,
          0.12552976608276367,
          0.16321688890457153,
          0.04659933224320412,
          -0.3769238591194153,
          0.1768343299627304,
          -0.38541555404663086,
          0.2984333336353302,
          0.19435571134090424,
          0.13727669417858124,
          -0.15655028820037842,
          -0.47666776180267334,
          -0.60443115234375,
          -0.44700974225997925,
          0.003047745442017913,
          -0.10143476724624634,
          -0.3673793375492096,
          0.4768345057964325,
          0.22189362347126007,
          -0.07069876790046692,
          -0.011728760786354542,
          -0.03576796501874924,
          0.09584198147058487,
          -0.02728627808392048,
          -0.4491558372974396
        ],
        [
          0.0965115949511528,
          -0.039643123745918274,
          0.38368725776672363,
          0.2713055908679962,
          0.17479254305362701,
          0.05758944898843765,
          0.09743465483188629,
          -0.18815918266773224,
          -0.10968861728906631,
          -0.1134675145149231,
          -0.03737204149365425,
          0.05753516033291817,
          0.011824934743344784,
          0.07488561421632767,
          0.12202496081590652,
          0.14453797042369843,
          0.4955165684223175,
          0.09274991601705551,
          0.06534117460250854,
          -0.22995588183403015,
          0.40023133158683777,
          0.19237717986106873,
          0.48866912722587585,
          -0.2131955921649933,
          0.29160231351852417,
          -0.2521618902683258,
          -0.5809358358383179,
          -0.2888425588607788,
          -0.23428352177143097,
          -0.038237590342760086,
          -0.09590130299329758,
          0.13908685743808746,
          0.07833174616098404,
          -0.08589250594377518,
          0.13047845661640167,
          -0.29725778102874756,
          -0.12021645903587341,
          0.13914433121681213,
          -0.1910257637500763,
          0.04164009168744087,
          0.12891049683094025,
          -0.1647716611623764,
          -0.28734317421913147,
          -0.1111391931772232
        ],
        [
          -0.2282353937625885,
          0.17007170617580414,
          0.23052610456943512,
          0.08950495719909668,
          0.09831039607524872,
          0.028611717745661736,
          -0.4246681034564972,
          0.10852967947721481,
          0.11868200451135635,
          -0.26304009556770325,
          0.1303514838218689,
          -0.15513697266578674,
          0.11945577710866928,
          -0.006693750619888306,
          0.1122143417596817,
          -0.14082883298397064,
          0.35780638456344604,
          0.06635913997888565,
          0.02227848581969738,
          -0.10177026689052582,
          0.21920406818389893,
          0.4002717137336731,
          -0.006047797854989767,
          0.03979851305484772,
          0.34685441851615906,
          -0.18041007220745087,
          -0.6858028173446655,
          -0.4282500445842743,
          -0.009804775007069111,
          0.21248368918895721,
          -0.21940208971500397,
          -0.08782041072845459,
          0.17120741307735443,
          -0.18670399487018585,
          -0.022713694721460342,
          0.12223386764526367,
          0.18138079345226288,
          -0.1318470537662506,
          -0.21324187517166138,
          -0.12034865468740463,
          0.019398167729377747,
          0.23197323083877563,
          0.03060404770076275,
          -0.19527655839920044
        ],
        [
          0.3381824195384979,
          0.0572194904088974,
          0.21207432448863983,
          0.05665648728609085,
          0.0033310246653854847,
          -0.11170175671577454,
          0.3695431649684906,
          -0.28004810214042664,
          -0.0027393244672566652,
          -0.006674388889223337,
          0.15090355277061462,
          0.024177128449082375,
          -0.017832031473517418,
          -0.07078632712364197,
          0.039803240448236465,
          0.0722881555557251,
          0.684008777141571,
          0.15777139365673065,
          -0.11974776536226273,
          0.2024969905614853,
          -0.16015081107616425,
          -0.2332133948802948,
          0.08207327872514725,
          -0.26136136054992676,
          -0.01834114082157612,
          -0.2734569311141968,
          -0.40158137679100037,
          -0.4541362524032593,
          -0.32170507311820984,
          -0.04503343254327774,
          -0.2550183832645416,
          0.08916126936674118,
          0.5794363617897034,
          -0.21680963039398193,
          -0.32155653834342957,
          -0.23499736189842224,
          0.5562864542007446,
          0.4423585832118988,
          -0.27102798223495483,
          0.007044261787086725,
          -0.3012171983718872,
          -0.06332386285066605,
          -0.04990929737687111,
          -0.30938270688056946
        ]
      ],
      "bias": [
        0.06908464431762695,
        0.237993985414505,
        -0.41495367884635925,
        0.04163234308362007,
        0.4714506268501282,
        0.2499837875366211,
        0.14707493782043457,
        0.04931451380252838,
        0.4054010212421417,
        0.022602662444114685,
        0.2514965832233429,
        0.25751829147338867,
        0.08991624414920807,
        0.34681791067123413,
        0.03589370474219322,
        0.22123399376869202,
        -0.03406117856502533,
        0.12789522111415863,
        0.16981060802936554,
        0.39142632484436035,
        0.3401041626930237,
        0.03300764411687851,
        -0.055052414536476135,
        0.004024235066026449,
        -0.43250590562820435,
        0.026739703491330147,
        -0.21864454448223114,
        0.1083730012178421,
        0.47215479612350464,
        0.1484273225069046,
        0.059089865535497665,
        0.29475170373916626
      ],
      "activation": "relu"
    },
    {
      "weight": [
        [
          -0.06954383850097656,
          -0.260344535112381,
          0.7451311945915222,
          0.43878790736198425,
          0.28463214635849,
          0.3737814724445343,
          -0.019596822559833527,
          -0.0838131457567215,
          0.19088688492774963,
          -0.18384546041488647,
          0.31398019194602966,
          -0.31380021572113037,
          -0.585598349571228,
          0.41277047991752625,
          0.2424749881029129,
          0.17745636403560638,
          -0.17444415390491486,
          0.08050018548965454,
          0.2411477118730545,
          0.34264177083969116,
          0.19546765089035034,
          0.24224905669689178,
          -0.39025628566741943,
          0.4197079539299011,
          0.29824918508529663,
          0.22805839776992798,
          0.5548696517944336,
          -0.19821278750896454,
          -0.1273682415485382,
          -0.21136899292469025,
          -0.3490525782108307,
          0.13101352751255035
        ],
        [
          0.6790486574172974,
          -0.37063300609588623,
          -0.6547843813896179,
          -0.1574525237083435,
          -0.4555472433567047,
          -0.18076205253601074,
          0.486782968044281,
          0.33085986971855164,
          -0.1462932676076889,
          0.07846397906541824,
          0.1376124769449234,
          0.005713542457669973,
          0.08982434123754501,
          0.2259930968284607,
          -1.5818824768066406,
          -0.05813064053654671,
          0.19940023124217987,
          -0.7996878027915955,
          -0.17577026784420013,
          0.2216094434261322,
          -0.22904860973358154,
          -0.3667878806591034,
          0.603761613368988,
          -0.2521957755088806,
          -0.05788349360227585,
          -0.9535292983055115,
          -0.32648515701293945,
          0.3317473232746124,
          -0.10479741543531418,
          0.21471618115901947,
          0.24682646989822388,
          0.14143675565719604
        ],
        [
          -0.10901343822479248,
          0.010184885933995247,
          4.9065492930822074e-05,
          0.018538694828748703,
          0.19340427219867706,
          0.09496121108531952,
          0.12494490295648575,
          -0.12692086398601532,
          -0.15814781188964844,
          -0.025616737082600594,
          -0.04802960529923439,
          -0.1904447227716446,
          -0.12280634790658951,
          -0.03064638003706932,
          -0.17965349555015564,
          -0.18386025726795197,
          -0.2389141023159027,
          -0.11628048121929169,
          -0.14897887408733368,
          -0.29013994336128235,
          -0.13190099596977234,
          -0.10546412318944931,
          0.04929399862885475,
          0.021992338821291924,
          0.01874578557908535,
          -0.2216295748949051,
          -0.1620258241891861,
          -0.32064902782440186,
          -0.21364356577396393,
          0.00947587937116623,
          -0.36893901228904724,
          0.15486754477024078
        ],
        [
          0.09420739859342575,
          -0.9342808127403259,
          0.5439372062683105,
          0.04179077595472336,
          -0.14122267067432404,
          0.16477176547050476,
          0.10300526022911072,
          0.3840855360031128,
          -0.11467377841472626,
          -0.3935006260871887,
          0.21522881090641022,
          0.053461868315935135,
          0.41147056221961975,
          0.07052167505025864,
          0.23759278655052185,
          0.243388369679451,
          0.04987243190407753,
          0.7551717162132263,
          0.32917720079421997,
          0.16232182085514069,
          -0.06914155185222626,
          0.23566734790802002,
          -0.2961333394050598,
          0.09237530082464218,
          0.4218960404396057,
          0.16326025128364563,
          0.3839266300201416,
          -0.19640988111495972,
          0.5632957816123962,
          -0.2072431445121765,
          -0.06758332252502441,
          0.2960277497768402
        ],
        [
          -0.007288327906280756,
          -0.03320684656500816,
          0.052907418459653854,
          0.01668536849319935,
          -0.234321728348732,
          -0.14779800176620483,
          -0.12135963886976242,
          -0.15142126381397247,
          0.007118594832718372,
          -0.013320211321115494,
          0.0342431366443634,
          -0.22072066366672516,
          -0.20853014290332794,
          0.0481872521340847,
          0.04497233033180237,
          0.03612789511680603,
          -0.1087215468287468,
          -0.030099283903837204,
          -0.17387822270393372,
          -0.025299115106463432,
          -0.20593005418777466,
          -0.18223614990711212,
          -0.11771528422832489,
          -0.005154009908437729,
          -0.18441122770309448,
          0.045209139585494995,
          -0.24993053078651428,
          -0.061232320964336395,
          -0.11287621408700943,
          -0.14530256390571594,
          -0.13322293758392334,
          -0.19306522607803345
        ],
        [
          0.08278461545705795,
          0.4094115197658539,
          -0.1323573738336563,
          -0.006139675620943308,
          -0.40761372447013855,
          0.329891175031662,
          0.2942206561565399,
          0.31199508905410767,
          0.25998446345329285,
          0.3552536964416504,
          -0.19468794763088226,
          0.5085461139678955,
          0.46786344051361084,
          -0.03183290362358093,
          -0.2025754600763321,
          0.2749466300010681,
          -0.015179282054305077,
          0.36100897192955017,
          0.31401553750038147,
          0.14777877926826477,
          0.5708298087120056,
          0.2351449877023697,
          0.1831655204296112,
          0.044022031128406525,
          -0.3573361337184906,
          -0.21533556282520294,
          -0.21554125845432281,
          0.35322317481040955,
          0.4418298304080963,
          0.17229512333869934,
          0.15018609166145325,
          0.08551563322544098
        ],
        [
          0.5428116917610168,
          -0.38756832480430603,
          -0.19061997532844543,
          -0.3539230525493622,
          -0.696296215057373,
          0.14444050192832947,
          0.03964845463633537,
          0.41176697611808777,
          -0.23514243960380554,
          0.205812469124794,
          -0.061948567628860474,
          0.17426921427249908,
          0.22026872634887695,
          0.023292191326618195,
          -0.4476993978023529,
          -0.050611939281225204,
          -0.053113680332899094,
          0.41451120376586914,
          0.4535476267337799,
          0.051373440772295,
          -0.24681025743484497,
          0.810740053653717,
          0.12230389565229416,
          -0.11025445908308029,
          -0.07734464854001999,
          -0.3528357446193695,
          -0.23421600461006165,
          0.23406215012073517,
          0.305551677942276,
          0.25797009468078613,
          0.3422335088253021,
          0.32141920924186707
        ],
        [
          0.26887956261634827,
          -0.11502408981323242,
          0.382668137550354,
          0.33248305320739746,
          0.5180752277374268,
          -0.18633638322353363,
          0.4785979390144348,
          -0.15360422432422638,
          0.18426190316677094,
          -0.15108364820480347,
          0.37121182680130005,
          -0.015899749472737312,
          -0.14530867338180542,
          0.4734455347061157,
          0.23862430453300476,
          -0.08231321722269058,
          0.053045663982629776,
          -0.04393281042575836,
          -0.24347259104251862,
          0.2984769642353058,
          -0.02426299639046192,
          -0.08832765370607376,
          0.05978149175643921,
          0.07513818144798279,
          0.34952008724212646,
          0.17036058008670807,
          0.5156075358390808,
          0.21779116988182068,
          -0.05646006017923355,
          0.32601624727249146,
          0.01384695339947939,
          0.22626833617687225
        ],
        [
          -0.11457176506519318,
          -0.020903820171952248,
          0.04076787829399109,
          -0.15962539613246918,
          -0.1668010652065277,
          -0.16097278892993927,
          -0.15260864794254303,
          0.06400653719902039,
          -0.1735241562128067,
          -0.21705202758312225,
          -0.10437856614589691,
          -0.1464938372373581,
          -0.055206865072250366,
          -0.21164348721504211,
          0.05792449042201042,
          -0.07427173107862473,
          -0.03461894020438194,
          -0.21159927546977997,
          -0.18999192118644714,
          -0.09503395110368729,
          -0.08725596964359283,
          -0.24804888665676117,
          -0.0943722203373909,
          -0.20961560308933258,
          -0.07558415085077286,
          -0.11365388333797455,
          0.06967494636774063,
          0.07911175489425659,
          0.011478823609650135,
          0.00582502968609333,
          0.066461481153965,
          -0.014291982166469097
        ],
        [
          0.18533997237682343,
          0.24011361598968506,
          0.03721984475851059,
          0.3833697438240051,
          0.17277437448501587,
          -0.30111461877822876,
          0.2867305278778076,
          -0.23558394610881805,
          -0.09195534884929657,
          0.24742205440998077,
          0.30314901471138,
          0.19733698666095734,
          -0.08836355060338974,
          0.09346196800470352,
          -0.006994504481554031,
          -0.09607510268688202,
          0.3539465069770813,
          0.015356065705418587,
          0.04728461429476738,
          0.25380176305770874,
          0.0067167459055781364,
          -0.03665729612112045,
          0.26275932788848877,
          -0.011900978162884712,
          0.2366846650838852,
          0.17501717805862427,
          -0.06769198924303055,
          0.26929354667663574,
          -0.13868901133537292,
          0.060067854821681976,
          0.18505777418613434,
          0.3064177334308624
        ],
        [
          -0.002927094232290983,
          0.6150087118148804,
          -0.4018421173095703,
          0.24985165894031525,
          -0.05371073633432388,
          0.23918887972831726,
          0.08892281353473663,
          0.06673998385667801,
          0.6737720966339111,
          0.39579036831855774,
          -0.04261217266321182,
          0.24143892526626587,
          0.5187855362892151,
          0.02762662060558796,
          0.1515917181968689,
          0.3711128830909729,
          0.26775988936424255,
          0.04136650264263153,
          0.2746261656284332,
          0.27275046706199646,
          0.34971293807029724,
          -0.020225314423441887,
          0.1482578068971634,
          0.21989880502223969,
          -0.37178945541381836,
          0.1895645260810852,
          -0.19653695821762085,
          0.3694056272506714,
          0.283623605966568,
          0.0357828289270401,
          0.35464397072792053,
          0.101569265127182
        ],
        [
          0.043490223586559296,
          -0.8148916363716125,
          0.4844244420528412,
          0.1402398645877838,
          -0.18998627364635468,
          0.4081571400165558,
          0.10517667233943939,
          0.22565795481204987,
          0.06313502788543701,
          -0.11144997179508209,
          0.2510615289211273,
          -0.04494442790746689,
          0.035941656678915024,
          0.3550504744052887,
          0.24106168746948242,
          0.16397841274738312,
          -0.1465713530778885,
          0.38133877515792847,
          0.3719775676727295,
          0.15220661461353302,
          0.07953208684921265,
          -0.07233124226331711,
          -0.2521740794181824,
          0.060637395828962326,
          0.3647461533546448,
          0.14605388045310974,
          0.49525418877601624,
          -0.11694933474063873,
          0.22415873408317566,
          -0.1322028934955597,
          -0.017858166247606277,
          0.21738441288471222
        ],
        [
          0.3221311867237091,
          -1.6133334636688232,
          1.2894068956375122,
          0.09313658624887466,
          0.22732314467430115,
          -0.03288421034812927,
          -1.8812116384506226,
          -0.3379339575767517,
          -0.3286682367324829,
          -0.6300366520881653,
          0.360739141702652,
          -0.4027884304523468,
          -0.3613241910934448,
          0.7085192799568176,
          -0.2641769349575043,
          -0.25893932580947876,
          -0.05476125702261925,
          0.691296398639679,
          0.09535958617925644,
          -0.13564857840538025,
          -0.38774436712265015,
          0.7477890849113464,
          -0.08504824340343475,
          0.1281644105911255,
          0.9225802421569824,
          0.8780117630958557,
          0.7161598205566406,
          -0.4720359742641449,
          -0.027327897027134895,
          -0.14484719932079315,
          -0.25073957443237305,
          -0.03148574009537697
        ],
        [
          -0.27180835604667664,
          0.5260022282600403,
          -0.6006767153739929,
          0.2767130732536316,
          0.24127650260925293,
          -0.022767789661884308,
          -0.058916736394166946,
          -0.06354206800460815,
          0.743345320224762,
          0.37859857082366943,
          -0.02020307444036007,
          0.46141085028648376,
          0.07008489221334457,
          -0.17775580286979675,
          0.14722299575805664,
          0.05196584388613701,
          0.3856295943260193,
          -0.23909161984920502,
          -0.25870251655578613,
          0.31407010555267334,
          0.5169390439987183,
          -0.7040153741836548,
          0.3169081509113312,
          0.11647923290729523,
          -0.1979716718196869,
          0.08610189706087112,
          -0.36313632130622864,
          0.12587936222553253,
          -0.7961417436599731,
          0.21388950943946838,
          -0.0019685160368680954,
          -0.006385638378560543
        ],
        [
          -0.19033706188201904,
          0.4998638331890106,
          0.17252808809280396,
          0.0623091496527195,
          0.09827344119548798,
          0.13780933618545532,
          -0.14372766017913818,
          -0.030841462314128876,
          0.9030152559280396,
          0.05924585461616516,
          0.22342103719711304,
          -0.0033089492935687304,
          -0.11958087235689163,
          0.48510274291038513,
          0.27222588658332825,
          0.16539183259010315,
          0.015362752601504326,
          0.0012337964726611972,
          0.13919952511787415,
          -0.06640767306089401,
          0.12043263763189316,
          -0.3617423176765442,
          -0.16074460744857788,
          0.25798094272613525,
          -0.34535717964172363,
          0.19483694434165955,
          -0.35743045806884766,
          -0.30454403162002563,
          -0.12145821005105972,
          -0.2627248764038086,
          -0.22547270357608795,
          -0.17445099353790283
        ],
        [
          0.2787918746471405,
          -0.48404377698898315,
          -0.5439112782478333,
          -0.04202713072299957,
          0.08632414788007736,
          -0.06039594113826752,
          0.36705753207206726,
          0.06300725787878036,
          0.11832140386104584,
          0.1572306603193283,
          0.20943035185337067,
          -0.09238217025995255,
          0.17633680999279022,
          0.26120856404304504,
          -0.5215283036231995,
          0.2365211695432663,
          0.29051831364631653,
          -0.814062237739563,
          -0.0047270432114601135,
          -0.043629929423332214,
          -0.05136049538850784,
          -0.19628402590751648,
          0.19120651483535767,
          -0.09403994679450989,
          -0.12582135200500488,
          -0.5030898451805115,
          -0.4963994324207306,
          0.29251551628112793,
          -0.24757163226604462,
          0.111887626349926,
          0.11841517686843872,
          0.4344538152217865
        ],
        [
          -0.14256735146045685,
          0.34709879755973816,
          0.3561079800128937,
          0.27560266852378845,
          0.03214584290981293,
          0.17516374588012695,
          -0.09716445952653885,
          0.19721096754074097,
          -0.08930082619190216,
          0.19013643264770508,
          -0.2983079254627228,
          0.19716288149356842,
          0.4063640236854553,
          -0.49640581011772156,
          0.1284080296754837,
          -0.08867916464805603,
          0.22389262914657593,
          0.032758019864559174,
          0.08456035703420639,
          -0.44585394859313965,
          0.2856666147708893,
          -0.272794634103775,
          0.1753607988357544,
          0.17931845784187317,
          -0.2586013376712799,
          -0.26849472522735596,
          -0.02886340208351612,
          -0.04587339237332344,
          0.0693545788526535,
          -0.0003383724542800337,
          0.034169334918260574,
          0.11248813569545746
        ],
        [
          0.2417610138654709,
          -1.0283710956573486,
          0.937882661819458,
          -0.10040613263845444,
          0.17923223972320557,
          0.006203123833984137,
          -0.42674264311790466,
          0.10930810868740082,
          0.07012797147035599,
          -0.8071111440658569,
          0.36234864592552185,
          -0.15523339807987213,
          -0.8089247941970825,
          0.5536741614341736,
          -0.11470049619674683,
          0.18494980037212372,
          0.0675135999917984,
          0.41765788197517395,
          0.04402085766196251,
          0.20318034291267395,
          -0.11654999107122421,
          0.4375145733356476,
          -0.31048583984375,
          0.18721173703670502,
          0.5942255854606628,
          0.42941609025001526,
          0.693390965461731,
          -0.2942400872707367,
          -0.26456958055496216,
          -0.0745406523346901,
          -0.23868460953235626,
          0.085487000644207
        ],
        [
          0.3962615430355072,
          -0.10473521053791046,
          0.10595957189798355,
          0.025136461481451988,
          -0.33738768100738525,
          0.18743282556533813,
          0.16532567143440247,
          0.3668954074382782,
          -0.08690141886472702,
          -0.06046615168452263,
          0.16516010463237762,
          0.10057757794857025,
          0.37931403517723083,
          -0.008435574360191822,
          -0.09652117639780045,
          0.1356939673423767,
          0.1024918332695961,
          1.0311552286148071,
          0.33632034063339233,
          -0.0678401067852974,
          -0.10207019746303558,
          0.5260577201843262,
          0.011526107788085938,
          0.11129960417747498,
          0.047475360333919525,
          -0.07346362620592117,
          -0.02205285057425499,
          0.16177566349506378,
          0.4317600727081299,
          0.3135010600090027,
          0.065587118268013,
          0.38413646817207336
        ],
        [
          0.12982048094272614,
          -0.3406484127044678,
          -0.20182932913303375,
          -0.3739626407623291,
          -0.2179528921842575,
          -0.000566815142519772,
          0.02192920446395874,
          0.006409736815840006,
          -0.4782450199127197,
          -0.24905698001384735,
          -0.07144304364919662,
          -0.24917255342006683,
          0.44818904995918274,
          -0.21383070945739746,
          0.17387977242469788,
          -0.1997239738702774,
          -0.23154938220977783,
          0.24758002161979675,
          0.04807048290967941,
          -0.3260110020637512,
          -0.5622462630271912,
          -0.34006765484809875,
          -0.17336703836917877,
          0.10466869175434113,
          0.003317322349175811,
          0.1461448073387146,
          -0.2841969132423401,
          -0.41844266653060913,
          0.011826626025140285,
          0.11968213319778442,
          0.7405040860176086,
          0.36887267231941223
        ],
        [
          0.08276667445898056,
          1.0130184888839722,
          -0.4009746313095093,
          -0.030228596180677414,
          -0.23984307050704956,
          0.35034167766571045,
          -0.016513243317604065,
          0.16804030537605286,
          0.21771125495433807,
          0.2837972640991211,
          -0.21889546513557434,
          0.46780064702033997,
          0.28232327103614807,
          -0.33633631467819214,
          -0.27154645323753357,
          0.11789518594741821,
          0.29716435074806213,
          -0.04545034468173981,
          0.35378897190093994,
          0.0105962585657835,
          0.37576085329055786,
          0.1015915796160698,
          0.29992377758026123,
          -0.020225170999765396,
          -0.4481508433818817,
          -0.34388506412506104,
          -0.35039862990379333,
          0.2234969288110733,
          0.38530924916267395,
          0.26637667417526245,
          0.34223732352256775,
          -0.006196089554578066
        ],
        [
          0.07757493108510971,
          0.37627753615379333,
          -0.2997606098651886,
          0.08212421834468842,
          0.42741659283638,
          -0.4178970754146576,
          0.21746906638145447,
          -0.39500951766967773,
          0.12351657450199127,
          0.36281344294548035,
          0.14558058977127075,
          -0.002022756030783057,
          0.0880703255534172,
          -0.22431689500808716,
          -0.02105541154742241,
          0.07127455621957779,
          0.37437430024147034,
          0.41764721274375916,
          -0.39284420013427734,
          0.21304385364055634,
          -0.04467817395925522,
          -0.18212565779685974,
          0.32697564363479614,
          0.08428417146205902,
          -0.044688232243061066,
          -0.1408563256263733,
          -0.01081140711903572,
          0.027888711541891098,
          -0.6571041941642761,
          0.32035741209983826,
          0.09734110534191132,
          0.27682358026504517
        ],
        [
          -0.44982200860977173,
          0.43608203530311584,
          -0.15651707351207733,
          0.27945783734321594,
          0.34261050820350647,
          -0.6218576431274414,
          0.26904329657554626,
          -0.4382399022579193,
          0.2530796229839325,
          0.45732349157333374,
          0.16715869307518005,
          -0.008412433788180351,
          -0.25373753905296326,
          -0.22877471148967743,
          0.11840198934078217,
          -0.3512997329235077,
          0.30017921328544617,
          -0.09781156480312347,
          -0.6894603371620178,
          0.2462461292743683,
          0.42232590913772583,
          -0.8854072690010071,
          0.05051765218377113,
          0.1284668892621994,
          0.1905946433544159,
          -0.015845227986574173,
          -0.05021432787179947,
          0.19293712079524994,
          -1.3984347581863403,
          0.0866008773446083,
          -0.1809942126274109,
          0.06586602330207825
        ],
        [
          -0.2795755863189697,
          -0.04979454725980759,
          0.2654576003551483,
          0.12775753438472748,
          0.02652692422270775,
          0.4362500011920929,
          -0.16249461472034454,
          0.23352260887622833,
          0.42461204528808594,
          0.07339902967214584,
          0.19910632073879242,
          -0.011194005608558655,
          -0.18869228661060333,
          0.4915846288204193,
          0.6352548003196716,
          0.10562881082296371,
          -0.16726195812225342,
          -0.026627231389284134,
          0.3266258239746094,
          0.13341200351715088,
          0.648430585861206,
          -0.17485061287879944,
          -0.10896461457014084,
          0.09431883692741394,
          0.12333788722753525,
          0.33805394172668457,
          0.41217872500419617,
          -0.14590661227703094,
          0.1805877834558487,
          -0.03435575217008591,
          -0.15782776474952698,
          -0.19541172683238983
        ],
        [
          0.2595273554325104,
          -1.286331295967102,
          0.6977844834327698,
          0.1521042436361313,
          -0.09635180979967117,
          0.32683923840522766,
          -0.0483211949467659,
          0.26426127552986145,
          -0.04886382073163986,
          -0.25805598497390747,
          0.15524472296237946,
          -0.2657664716243744,
          -0.55710768699646,
          0.3574281632900238,
          0.25517135858535767,
          0.08650796115398407,
          -0.4054834246635437,
          0.6051844954490662,
          0.17054615914821625,
          0.08572084456682205,
          -0.21079398691654205,
          0.17016835510730743,
          -0.1269492506980896,
          -0.025372548028826714,
          0.5416678786277771,
          0.35069188475608826,
          0.7102457880973816,
          -0.28349554538726807,
          0.40257909893989563,
          -0.2859565317630768,
          -0.36815527081489563,
          0.2037440985441208
        ],
        [
          0.17358942329883575,
          0.1570553034543991,
          -0.09700019657611847,
          0.07665267586708069,
          -0.0747779905796051,
          -0.11350598931312561,
          0.3264772891998291,
          0.13244681060314178,
          -0.07932276278734207,
          -0.1987018585205078,
          -0.21433743834495544,
          0.3641263544559479,
          0.3307473361492157,
          -0.14858223497867584,
          -0.4083541929721832,
          -0.017558278515934944,
          -0.19999666512012482,
          0.07932791858911514,
          -0.06773290783166885,
          -0.32311275601387024,
          -0.3858183026313782,
          0.733582079410553,
          -0.05274449288845062,
          -0.14269724488258362,
          0.02348814532160759,
          -0.15552736818790436,
          -0.5890915393829346,
          -0.2357385754585266,
          -0.10946287959814072,
          0.1669095754623413,
          0.10890515148639679,
          -0.1196676716208458
        ],
        [
          -0.02410857193171978,
          -0.8538629412651062,
          0.5497974753379822,
          0.04512433707714081,
          -0.12181556969881058,
          0.3422901928424835,
          -0.0268713291734457,
          0.23925328254699707,
          -0.10424970090389252,
          -0.0763329342007637,
          0.17508016526699066,
          -0.08858631551265717,
          -0.2727939188480377,
          0.22696350514888763,
          0.3395504951477051,
          0.3026435971260071,
          -0.03223743289709091,
          0.2723858952522278,
          -0.054234713315963745,
          0.19680732488632202,
          0.30207833647727966,
          0.12489719688892365,
          -0.037705548107624054,
          0.05184866860508919,
          0.3518426716327667,
          0.09590302407741547,
          0.6632297039031982,
          0.08961013704538345,
          0.14425641298294067,
          0.1786094456911087,
          -0.15414974093437195,
          0.36761191487312317
        ],
        [
          0.3790847063064575,
          0.1178022176027298,
          -0.3868866562843323,
          0.20315401256084442,
          0.5549607872962952,
          -0.4043608605861664,
          0.2856433689594269,
          -0.08031201362609863,
          -0.0497853122651577,
          -0.08099178969860077,
          0.3754676580429077,
          -0.2178606539964676,
          -0.016056504100561142,
          0.1314983069896698,
          -0.14142677187919617,
          -0.17997170984745026,
          0.3838452100753784,
          0.0925227627158165,
          -0.36283084750175476,
          0.3406212031841278,
          -0.16266769170761108,
          0.09338290244340897,
          0.4849059581756592,
          -0.07497752457857132,
          -0.16517478227615356,
          -0.2369295209646225,
          0.20472179353237152,
          -0.0179113931953907,
          -0.4237215518951416,
          0.32560813426971436,
          0.16130277514457703,
          0.36468440294265747
        ],
        [
          0.33045077323913574,
          0.9339203834533691,
          -0.27858641743659973,
          0.08691971004009247,
          0.10357319563627243,
          -0.38109904527664185,
          0.35784152150154114,
          -0.08125956356525421,
          -0.3009342551231384,
          0.25799447298049927,
          -0.2365068942308426,
          0.20341868698596954,
          0.11969993263483047,
          -0.2865309715270996,
          -1.0554308891296387,
          0.06266699731349945,
          0.2804052233695984,
          0.45494335889816284,
          -0.13869404792785645,
          0.16683171689510345,
          -0.14567504823207855,
          0.5588212609291077,
          0.23968425393104553,
          -0.4722471833229065,
          -0.03144627436995506,
          -0.09143324196338654,
          0.02047206647694111,
          0.1179729625582695,
          -0.2360106259584427,
          0.1146356537938118,
          0.1685384213924408,
          0.26383674144744873
        ],
        [
          0.6160046458244324,
          -0.9296197295188904,
          -1.3398810625076294,
          0.16864940524101257,
          -0.16699203848838806,
          0.1219334751367569,
          1.3605782985687256,
          0.389046847820282,
          0.14662671089172363,
          0.26617926359176636,
          -0.2858070433139801,
          0.007747284136712551,
          -0.3254971504211426,
          0.6718504428863525,
          -1.7440768480300903,
          -0.2901187539100647,
          -0.16238243877887726,
          -1.336319923400879,
          -0.08987248688936234,
          0.25594255328178406,
          0.3777332901954651,
          -0.5984060764312744,
          0.6301124095916748,
          -0.2820488214492798,
          -1.947363018989563,
          -2.0902626514434814,
          -1.770703673362732,
          0.3242104649543762,
          0.20350554585456848,
          0.1379810869693756,
          0.7475887537002563,
          0.1769576072692871
        ],
        [
          0.3308972120285034,
          0.018860984593629837,
          -0.7996166348457336,
          0.5388338565826416,
          0.5740602016448975,
          0.13043338060379028,
          -0.09960512071847916,
          -1.0782874822616577,
          -0.44626927375793457,
          -0.41868695616722107,
          0.8832993507385254,
          0.041947294026613235,
          0.06019037961959839,
          0.33197352290153503,
          0.9029489755630493,
          -0.2994808554649353,
          0.4016542434692383,
          0.7503393888473511,
          -0.5076156854629517,
          1.376404047012329,
          -0.13585275411605835,
          -1.575038194656372,
          0.09426472336053848,
          0.13618271052837372,
          0.16239500045776367,
          -0.0456848070025444,
          0.743772029876709,
          -0.1500181257724762,
          -0.5292080640792847,
          0.509803831577301,
          -0.25397226214408875,
          0.6430636048316956
        ],
        [
          -0.1283908635377884,
          -0.1914549469947815,
          -0.21817030012607574,
          -0.1596112996339798,
          0.07045134902000427,
          0.05711023136973381,
          0.08885699510574341,
          -0.15498822927474976,
          0.0026246525812894106,
          -0.12380573153495789,
          0.0056905183009803295,
          -0.011387977749109268,
          -0.07938382774591446,
          -0.21496501564979553,
          -0.10427053272724152,
          0.027622638270258904,
          -0.19303326308727264,
          -0.06899835914373398,
          0.05867011845111847,
          0.06261777877807617,
          -0.07716691493988037,
          -0.18043911457061768,
          -0.1956470012664795,
          -0.21275794506072998,
          -0.2170749008655548,
          0.03085823729634285,
          -0.10791069269180298,
          -0.11379381269216537,
          -0.19937413930892944,
          -0.002926846267655492,
          -0.23051996529102325,
          0.022155161947011948
        ]
      ],
      "bias": [
        0.15895260870456696,
        -0.16073645651340485,
        0.15770237147808075,
        0.1822572499513626,
        -0.03109719604253769,
        0.11982514709234238,
        0.14579051733016968,
        0.31983405351638794,
        0.022724006325006485,
        0.32208773493766785,
        0.3806701600551605,
        -0.061733752489089966,
        -0.18191999197006226,
        0.2902613580226898,
        -0.01149058062583208,
        0.2865534722805023,
        0.12383830547332764,
        -0.15608787536621094,
        0.21817022562026978,
        -0.07065857946872711,
        0.2763001620769501,
        0.3203701376914978,
        0.16176435351371765,
        0.17039893567562103,
        0.11369791626930237,
        -0.04256081208586693,
        0.29346001148223877,
        0.16990500688552856,
        0.3334963619709015,
        -0.28859788179397583,
        0.394366592168808,
        -0.11810459941625595
      ],
      "activation": "relu"
    },
    {
      "weight": [
        [
          0.5686913728713989,
          -0.2755027711391449,
          0.027003100141882896,
          0.6061276197433472,
          0.08957619220018387,
          -0.37189826369285583,
          -0.09911032766103745,
          0.23976919054985046,
          -0.132121279835701,
          0.0036271032877266407,
          -0.23084203898906708,
          0.48378056287765503,
          1.1356227397918701,
          -0.5038066506385803,
          -0.219920814037323,
          -0.5520535111427307,
          -0.2822986841201782,
          0.6226783394813538,
          0.15844328701496124,
          -0.29256680607795715,
          -0.510610044002533,
          -0.13887658715248108,
          -0.21731051802635193,
          0.33170604705810547,
          0.6787789463996887,
          0.03668520972132683,
          0.5790178179740906,
          0.1406765729188919,
          -0.3660306930541992,
          0.6932938694953918,
          0.47843050956726074,
          0.07425354421138763
        ],
        [
          -0.33399802446365356,
          0.8713329434394836,
          -0.043419092893600464,
          -0.04964300990104675,
          -0.07462270557880402,
          0.03095482476055622,
          0.44193509221076965,
          -0.014180205762386322,
          0.10044871270656586,
          0.24693343043327332,
          0.0893985778093338,
          -0.3661496341228485,
          -0.11872392892837524,
          -0.1753353476524353,
          -0.561135470867157,
          0.3304191827774048,
          -0.1780320256948471,
          -0.2854069173336029,
          0.34195926785469055,
          0.8863466382026672,
          0.3157869279384613,
          0.2533629536628723,
          -0.2579876482486725,
          -0.4501626193523407,
          -0.15492314100265503,
          0.5634040236473083,
          -0.12240011245012283,
          0.3421306014060974,
          0.4499519169330597,
          1.7279502153396606,
          0.07871173322200775,
          -0.10508929193019867
        ],
        [
          -0.06259757280349731,
          -0.7426369786262512,
          -0.012113109230995178,
          0.23366017639636993,
          0.03757846727967262,
          0.46849173307418823,
          0.21700316667556763,
          -0.19113004207611084,
          -0.03853834792971611,
          -0.12033016234636307,
          0.4141424000263214,
          0.32948893308639526,
          -0.5942919850349426,
          0.08400547504425049,
          0.28531375527381897,
          -0.00600132392719388,
          0.3487473428249359,
          -0.42696428298950195,
          0.3557114899158478,
          -0.15392932295799255,
          0.5465244054794312,
          -0.5252135396003723,
          -0.7314736247062683,
          0.3173380196094513,
          0.08091752231121063,
          -0.27161070704460144,
          0.060486648231744766,
          -0.539669930934906,
          -0.07799535244703293,
          -1.602185606956482,
          -1.4720476865768433,
          0.0627194195985794
        ],
        [
          0.32915550470352173,
          -0.5648243427276611,
          0.2743533253669739,
          -0.523542046546936,
          -0.013788376934826374,
          -0.23614728450775146,
          -0.5437679886817932,
          0.3097169101238251,
          -0.1163347065448761,
          0.4131867289543152,
          0.29295071959495544,
          -0.37631848454475403,
          -0.5430397391319275,
          0.45515719056129456,
          0.4507473409175873,
          0.319186806678772,
          0.23998822271823883,
          -0.013629823923110962,
          -0.4734008312225342,
          -0.1713717132806778,
          0.003959168680012226,
          0.3828180134296417,
          0.5305423736572266,
          0.15533606708049774,
          -0.28947633504867554,
          -0.0365951769053936,
          -0.00285486807115376,
          0.25724485516548157,
          0.16811127960681915,
          -2.2202868461608887,
          0.38152429461479187,
          0.10967331379652023
        ],
        [
          -0.3358665108680725,
          -0.09611831605434418,
          0.032187871634960175,
          -0.31470662355422974,
          0.03524164855480194,
          -0.3277144432067871,
          -0.1254512518644333,
          -0.2564627230167389,
          0.07482203841209412,
          -0.24481667578220367,
          -0.2574509084224701,
          0.0489407442510128,
          -0.1398819535970688,
          -0.2459886521100998,
          -0.29745718836784363,
          -0.34208494424819946,
          -0.15975938737392426,
          -0.15623554587364197,
          -0.2896910607814789,
          -0.1355002224445343,
          -0.21660476922988892,
          -0.053219810128211975,
          -0.22021101415157318,
          -0.09286943823099136,
          -0.22387847304344177,
          0.02356875315308571,
          -0.3245702087879181,
          -0.2557283639907837,
          -0.16779133677482605,
          0.01622788980603218,
          -0.22290241718292236,
          0.07948193699121475
        ]
      ],
      "bias": [
        0.01368760596960783,
        0.039826102554798126,
        0.22228138148784637,
        0.15091194212436676,
        0.012240570038557053
      ],
      "activation": "identity"
    }
  ]
}